digraph Tree {
node [shape=box, style="filled, rounded", color="black", fontname="helvetica"] ;
edge [fontname="helvetica"] ;
0 [label="Occupation_Tutor <= 0.5\nentropy = 0.94\nsamples = 97\nvalue = [92, 52]\nclass = T", fillcolor="#f4c8a9"] ;
1 [label="Occupation_Engineer <= 0.5\nentropy = 0.96\nsamples = 87\nvalue = [76, 48]\nclass = T", fillcolor="#f5d1b6"] ;
0 -> 1 [labeldistance=2.5, labelangle=45, headlabel="True"] ;
2 [label="Gender <= 0.5\nentropy = 0.97\nsamples = 62\nvalue = [56, 38]\nclass = T", fillcolor="#f7d7bf"] ;
1 -> 2 ;
3 [label="Occupation_Recruiter <= 0.5\nentropy = 0.99\nsamples = 23\nvalue = [16, 20]\nclass = a", fillcolor="#d7ebfa"] ;
2 -> 3 ;
4 [label="have_kids <= 0.5\nentropy = 0.99\nsamples = 17\nvalue = [12, 16]\nclass = a", fillcolor="#cee6f8"] ;
3 -> 4 ;
5 [label="Occupation_Business <= 0.5\nentropy = 0.99\nsamples = 11\nvalue = [9, 11]\nclass = a", fillcolor="#dbedfa"] ;
4 -> 5 ;
6 [label="Occupation_Manager <= 0.5\nentropy = 0.86\nsamples = 8\nvalue = [4, 10]\nclass = a", fillcolor="#88c4ef"] ;
5 -> 6 ;
7 [label="entropy = 0.0\nsamples = 5\nvalue = [0, 10]\nclass = a", fillcolor="#399de5"] ;
6 -> 7 ;
8 [label="entropy = 0.0\nsamples = 3\nvalue = [4, 0]\nclass = T", fillcolor="#e58139"] ;
6 -> 8 ;
9 [label="is_office_near_home <= 0.5\nentropy = 0.65\nsamples = 3\nvalue = [5, 1]\nclass = T", fillcolor="#ea9a61"] ;
5 -> 9 ;
10 [label="Age <= 24.5\nentropy = 0.92\nsamples = 2\nvalue = [2, 1]\nclass = T", fillcolor="#f2c09c"] ;
9 -> 10 ;
11 [label="entropy = 0.0\nsamples = 1\nvalue = [2, 0]\nclass = T", fillcolor="#e58139"] ;
10 -> 11 ;
12 [label="entropy = 0.0\nsamples = 1\nvalue = [0, 1]\nclass = a", fillcolor="#399de5"] ;
10 -> 12 ;
13 [label="entropy = 0.0\nsamples = 1\nvalue = [3, 0]\nclass = T", fillcolor="#e58139"] ;
9 -> 13 ;
14 [label="Occupation_Manager <= 0.5\nentropy = 0.95\nsamples = 6\nvalue = [3, 5]\nclass = a", fillcolor="#b0d8f5"] ;
4 -> 14 ;
15 [label="Age <= 41.0\nentropy = 1.0\nsamples = 4\nvalue = [3, 3]\nclass = T", fillcolor="#ffffff"] ;
14 -> 15 ;
16 [label="entropy = 0.0\nsamples = 2\nvalue = [3, 0]\nclass = T", fillcolor="#e58139"] ;
15 -> 16 ;
17 [label="entropy = 0.0\nsamples = 2\nvalue = [0, 3]\nclass = a", fillcolor="#399de5"] ;
15 -> 17 ;
18 [label="entropy = 0.0\nsamples = 2\nvalue = [0, 2]\nclass = a", fillcolor="#399de5"] ;
14 -> 18 ;
19 [label="is_office_near_home <= 0.5\nentropy = 1.0\nsamples = 6\nvalue = [4, 4]\nclass = T", fillcolor="#ffffff"] ;
3 -> 19 ;
20 [label="Age <= 27.5\nentropy = 0.72\nsamples = 4\nvalue = [1, 4]\nclass = a", fillcolor="#6ab6ec"] ;
19 -> 20 ;
21 [label="entropy = 0.0\nsamples = 3\nvalue = [0, 4]\nclass = a", fillcolor="#399de5"] ;
20 -> 21 ;
22 [label="entropy = 0.0\nsamples = 1\nvalue = [1, 0]\nclass = T", fillcolor="#e58139"] ;
20 -> 22 ;
23 [label="entropy = 0.0\nsamples = 2\nvalue = [3, 0]\nclass = T", fillcolor="#e58139"] ;
19 -> 23 ;
24 [label="is_office_near_home <= 0.5\nentropy = 0.89\nsamples = 39\nvalue = [40, 18]\nclass = T", fillcolor="#f1ba92"] ;
2 -> 24 ;
25 [label="Occupation_Marketing  <= 0.5\nentropy = 0.84\nsamples = 19\nvalue = [22, 8]\nclass = T", fillcolor="#eeaf81"] ;
24 -> 25 ;
26 [label="Age <= 27.5\nentropy = 0.75\nsamples = 17\nvalue = [22, 6]\nclass = T", fillcolor="#eca36f"] ;
25 -> 26 ;
27 [label="Occupation_Manager <= 0.5\nentropy = 0.28\nsamples = 11\nvalue = [20, 1]\nclass = T", fillcolor="#e68743"] ;
26 -> 27 ;
28 [label="entropy = 0.0\nsamples = 9\nvalue = [18, 0]\nclass = T", fillcolor="#e58139"] ;
27 -> 28 ;
29 [label="entropy = 0.92\nsamples = 2\nvalue = [2, 1]\nclass = T", fillcolor="#f2c09c"] ;
27 -> 29 ;
30 [label="Occupation_HR <= 0.5\nentropy = 0.86\nsamples = 6\nvalue = [2, 5]\nclass = a", fillcolor="#88c4ef"] ;
26 -> 30 ;
31 [label="Age <= 29.5\nentropy = 0.65\nsamples = 5\nvalue = [1, 5]\nclass = a", fillcolor="#61b1ea"] ;
30 -> 31 ;
32 [label="Occupation_Manager <= 0.5\nentropy = 0.81\nsamples = 4\nvalue = [1, 3]\nclass = a", fillcolor="#7bbeee"] ;
31 -> 32 ;
33 [label="entropy = 0.0\nsamples = 1\nvalue = [0, 1]\nclass = a", fillcolor="#399de5"] ;
32 -> 33 ;
34 [label="Age <= 28.5\nentropy = 0.92\nsamples = 3\nvalue = [1, 2]\nclass = a", fillcolor="#9ccef2"] ;
32 -> 34 ;
35 [label="entropy = 0.0\nsamples = 1\nvalue = [0, 1]\nclass = a", fillcolor="#399de5"] ;
34 -> 35 ;
36 [label="entropy = 1.0\nsamples = 2\nvalue = [1, 1]\nclass = T", fillcolor="#ffffff"] ;
34 -> 36 ;
37 [label="entropy = 0.0\nsamples = 1\nvalue = [0, 2]\nclass = a", fillcolor="#399de5"] ;
31 -> 37 ;
38 [label="entropy = 0.0\nsamples = 1\nvalue = [1, 0]\nclass = T", fillcolor="#e58139"] ;
30 -> 38 ;
39 [label="entropy = 0.0\nsamples = 2\nvalue = [0, 2]\nclass = a", fillcolor="#399de5"] ;
25 -> 39 ;
40 [label="Occupation_Business <= 0.5\nentropy = 0.94\nsamples = 20\nvalue = [18, 10]\nclass = T", fillcolor="#f3c7a7"] ;
24 -> 40 ;
41 [label="Occupation_Marketing  <= 0.5\nentropy = 0.59\nsamples = 15\nvalue = [18, 3]\nclass = T", fillcolor="#e9965a"] ;
40 -> 41 ;
42 [label="Occupation_Manager <= 0.5\nentropy = 0.81\nsamples = 6\nvalue = [6, 2]\nclass = T", fillcolor="#eeab7b"] ;
41 -> 42 ;
43 [label="Occupation_Recruiter <= 0.5\nentropy = 1.0\nsamples = 3\nvalue = [2, 2]\nclass = T", fillcolor="#ffffff"] ;
42 -> 43 ;
44 [label="entropy = 0.0\nsamples = 2\nvalue = [2, 0]\nclass = T", fillcolor="#e58139"] ;
43 -> 44 ;
45 [label="entropy = 0.0\nsamples = 1\nvalue = [0, 2]\nclass = a", fillcolor="#399de5"] ;
43 -> 45 ;
46 [label="entropy = 0.0\nsamples = 3\nvalue = [4, 0]\nclass = T", fillcolor="#e58139"] ;
42 -> 46 ;
47 [label="Age <= 25.5\nentropy = 0.39\nsamples = 9\nvalue = [12, 1]\nclass = T", fillcolor="#e78c49"] ;
41 -> 47 ;
48 [label="Age <= 23.5\nentropy = 0.54\nsamples = 6\nvalue = [7, 1]\nclass = T", fillcolor="#e99355"] ;
47 -> 48 ;
49 [label="entropy = 0.0\nsamples = 1\nvalue = [2, 0]\nclass = T", fillcolor="#e58139"] ;
48 -> 49 ;
50 [label="entropy = 0.65\nsamples = 5\nvalue = [5, 1]\nclass = T", fillcolor="#ea9a61"] ;
48 -> 50 ;
51 [label="entropy = 0.0\nsamples = 3\nvalue = [5, 0]\nclass = T", fillcolor="#e58139"] ;
47 -> 51 ;
52 [label="entropy = 0.0\nsamples = 5\nvalue = [0, 7]\nclass = a", fillcolor="#399de5"] ;
40 -> 52 ;
53 [label="have_kids <= 0.5\nentropy = 0.92\nsamples = 25\nvalue = [20, 10]\nclass = T", fillcolor="#f2c09c"] ;
1 -> 53 ;
54 [label="Gender <= 0.5\nentropy = 0.65\nsamples = 20\nvalue = [20, 4]\nclass = T", fillcolor="#ea9a61"] ;
53 -> 54 ;
55 [label="Age <= 25.5\nentropy = 0.39\nsamples = 10\nvalue = [12, 1]\nclass = T", fillcolor="#e78c49"] ;
54 -> 55 ;
56 [label="entropy = 0.0\nsamples = 1\nvalue = [0, 1]\nclass = a", fillcolor="#399de5"] ;
55 -> 56 ;
57 [label="entropy = 0.0\nsamples = 9\nvalue = [12, 0]\nclass = T", fillcolor="#e58139"] ;
55 -> 57 ;
58 [label="is_office_near_home <= 0.5\nentropy = 0.85\nsamples = 10\nvalue = [8, 3]\nclass = T", fillcolor="#efb083"] ;
54 -> 58 ;
59 [label="entropy = 0.0\nsamples = 7\nvalue = [8, 0]\nclass = T", fillcolor="#e58139"] ;
58 -> 59 ;
60 [label="entropy = 0.0\nsamples = 3\nvalue = [0, 3]\nclass = a", fillcolor="#399de5"] ;
58 -> 60 ;
61 [label="entropy = 0.0\nsamples = 5\nvalue = [0, 6]\nclass = a", fillcolor="#399de5"] ;
53 -> 61 ;
62 [label="is_office_near_home <= 0.5\nentropy = 0.72\nsamples = 10\nvalue = [16, 4]\nclass = T", fillcolor="#eca06a"] ;
0 -> 62 [labeldistance=2.5, labelangle=-45, headlabel="False"] ;
63 [label="Age <= 32.5\nentropy = 0.95\nsamples = 4\nvalue = [5, 3]\nclass = T", fillcolor="#f5cdb0"] ;
62 -> 63 ;
64 [label="Age <= 23.5\nentropy = 1.0\nsamples = 3\nvalue = [3, 3]\nclass = T", fillcolor="#ffffff"] ;
63 -> 64 ;
65 [label="Age <= 22.5\nentropy = 0.81\nsamples = 2\nvalue = [3, 1]\nclass = T", fillcolor="#eeab7b"] ;
64 -> 65 ;
66 [label="entropy = 0.0\nsamples = 1\nvalue = [0, 1]\nclass = a", fillcolor="#399de5"] ;
65 -> 66 ;
67 [label="entropy = 0.0\nsamples = 1\nvalue = [3, 0]\nclass = T", fillcolor="#e58139"] ;
65 -> 67 ;
68 [label="entropy = 0.0\nsamples = 1\nvalue = [0, 2]\nclass = a", fillcolor="#399de5"] ;
64 -> 68 ;
69 [label="entropy = 0.0\nsamples = 1\nvalue = [2, 0]\nclass = T", fillcolor="#e58139"] ;
63 -> 69 ;
70 [label="Age <= 43.5\nentropy = 0.41\nsamples = 6\nvalue = [11, 1]\nclass = T", fillcolor="#e78c4b"] ;
62 -> 70 ;
71 [label="entropy = 0.0\nsamples = 5\nvalue = [11, 0]\nclass = T", fillcolor="#e58139"] ;
70 -> 71 ;
72 [label="entropy = 0.0\nsamples = 1\nvalue = [0, 1]\nclass = a", fillcolor="#399de5"] ;
70 -> 72 ;
}